{
  "layers": [
    {
      "activation": 1,
      "biases": [
        -40.07748074865354,
        26.85775401691141,
        -95.86435632934946,
        11.824177657692527,
        -64.05553210875667,
        9.819767442448494,
        12.913071498170092
      ],
      "cols": 7,
      "rows": 2,
      "weights": [
        [
          32.84978752654543,
          -45.09558505575173,
          38.577297119081315,
          -13.552641554300244,
          63.250663810553085,
          -14.237774830191244,
          -80.93474345972948
        ],
        [
          20.114694742374013,
          -21.77628958699373,
          83.03188752095642,
          -66.73291930391599,
          -25.546110886194658,
          -9.93480987989187,
          44.24584653379198
        ]
      ]
    },
    {
      "activation": 1,
      "biases": [
        0.18664840956359371,
        -0.2562283407957348,
        0.07300335054582953,
        0.20780602737775203,
        -0.31736411619188826,
        -0.2688371571358483,
        0.39387735283479436,
        0.4026995462163265,
        -0.7341812321926855,
        -0.13439455826293478
      ],
      "cols": 10,
      "rows": 7,
      "weights": [
        [
          -0.38608702075150103,
          1.6494626158988883,
          1.6440242871444348,
          -0.5181660783329369,
          4.14595284342076,
          -0.06736791427720673,
          15.96221784134348,
          1.1459552323866389,
          0.3009045549490098,
          24.86323652506062
        ],
        [
          0.1496366435425044,
          -3.929191978695125,
          -1.0939236993496597,
          1.200921062933714,
          -3.512116868201874,
          0.7250063811197616,
          1.6781929170449374,
          -2.565897970408211,
          0.3723052284963142,
          -1.243247332665569
        ],
        [
          0.014504919745085668,
          -1.6261704054443407,
          -1.674635822607719,
          0.47893393210734697,
          -3.7519128067849548,
          1.057610873477778,
          -14.923664147078652,
          -0.8559697915698713,
          -1.6924691153858267,
          -25.25704052530351
        ],
        [
          -0.8104896555986733,
          -0.40312076385675294,
          -1.9077540910143014,
          0.038451390222895884,
          -0.6577182647126802,
          -3.025318995885798,
          -0.9548149862751171,
          0.748020581578924,
          -0.7431172652271841,
          -1.8918057942793587
        ],
        [
          6.384775630519745,
          -2.2526205613772134,
          6.129012445882227,
          0.1296568399251249,
          2.7426884517213646,
          -4.666569977716915,
          -12.406855086785763,
          -4.1917676499758825,
          16.77489542876633,
          13.962972928363882
        ],
        [
          0.6886135914719062,
          4.202286559308847,
          3.086226562601152,
          -0.9513623754602618,
          3.3574168550384913,
          0.6298194591628852,
          -1.9672263349391423,
          2.1026767248724867,
          1.2686842020860947,
          2.1093511426101164
        ],
        [
          -0.017327640011328763,
          1.3630557742172278,
          -0.24303941381945435,
          -0.2514157351018447,
          1.0097115656642714,
          -0.49028170105134194,
          0.0742971484313008,
          0.17197027931173836,
          -1.1295673066437146,
          0.4758628962847523
        ]
      ]
    }
  ]
}
